<?xml version="1.0"?>
<opencv_storage>
<cascade>
  <stageType>BOOST</stageType>
  <featureType>LBP</featureType>
  <height>64</height>
  <width>32</width>
  <stageParams>
    <boostType>GAB</boostType>
    <minHitRate>9.9800002574920654e-001</minHitRate>
    <maxFalseAlarm>5.0000000000000000e-001</maxFalseAlarm>
    <weightTrimRate>9.4999999999999996e-001</weightTrimRate>
    <maxDepth>1</maxDepth>
    <maxWeakCount>1024</maxWeakCount></stageParams>
  <featureParams>
    <maxCatCount>256</maxCatCount>
    <featSize>1</featSize></featureParams>
  <stageNum>13</stageNum>
  <stages>
    <!-- stage 0 -->
    <_>
      <maxWeakCount>36</maxWeakCount>
      <stageThreshold>-1.9877319335937500e+000</stageThreshold>
      <weakClassifiers>
        <_>
          <internalNodes>
            0 -1 156 2013264895 1474294783 838151519 2147434495
            1946156031 324875263 2079309823 2147480575</internalNodes>
          <leafValues>
            -5.2751654386520386e-001 5.0629836320877075e-001</leafValues></_>
        <_>
          <internalNodes>
            0 -1 274 -801054080 -213781952 1074933879 1901717459
            -791613270 -255532924 1120399551 1347941363</internalNodes>
          <leafValues>
            -4.5542165637016296e-001 2.8421941399574280e-001</leafValues></_>
        <_>
          <internalNodes>
            0 -1 874 1048657 529664052 800985983 528287813 143132862
            -1079108887 180236283 -1073803589</internalNodes>
          <leafValues>
            -2.7980574965476990e-001 3.4888824820518494e-001</leafValues></_>
        <_>
          <internalNodes>
            0 -1 505 -674258262 989896842 16908304 831598242 1901134984
            1015284144 98115774 2145382383</internalNodes>
          <leafValues>
            -3.1037837266921997e-001 2.6558408141136169e-001</leafValues></_>
        <_>
          <internalNodes>
            0 -1 894 -301039568 -645608448 -2145605196 -45046220
            -2037468008 -1668251328 -1912568374 -2013264880</internalNodes>
          <leafValues>
            -2.3298200964927673e-001 2.5790777802467346e-001</leafValues></_>
        <_>
          <internalNodes>
            0 -1 275 -792206846 -595528962 831640145 -178782497
            -128132140 -603914528 -740961285 -715784193</internalNodes>
          <leafValues>
            -2.7071049809455872e-001 2.1112549304962158e-001</leafValues></_>
        <_>
          <internalNodes>
            0 -1 782 -69359112 430976208 816840756 971681832 480321756
            152310136 552863934 1073739771</internalNodes>
          <leafValues>
            -2.4542900919914246e-001 2.2135998308658600e-001</leafValues></_>
        <_>
          <internalNodes>
            0 -1 1418 208167935 937097594 1390214111 972399005 446496251
            -1610752594 -1611661313 264814559</internalNodes>
          <leafValues>
            -2.6450809836387634e-001 1.8265625834465027e-001</leafValues></_>
        <_>
          <internalNodes>
            0 -1 676 -926489082 -553210 148766077 -1141911037 -924324177
            -370774201 -1359129617 4671299</internalNodes>
          <leafValues>
            -2.4942047894001007e-001 1.8767873942852020e-001</leafValues></_>
        <_>
          <internalNodes>
            0 -1 156 -648562690 -1418385450 -135013702 -1779042266
            -1945158498 2096627252 -1787727878 -2130232149</internalNodes>
          <leafValues>
            -1.6239629685878754e-001 2.7496948838233948e-001</leafValues></_>
        <_>
          <internalNodes>
            0 -1 451 -1840332 1059109378 -1243867120 993764656 290877856
            239358006 47205528 -15204417</internalNodes>
          <leafValues>
            -2.0212009549140930e-001 2.2276115417480469e-001</leafValues></_>
        <_>
          <internalNodes>
            0 -1 122 1028920368 2103192200 1171337495 -69649795
            799675326 -1075295902 269230525 2065714456</internalNodes>
          <leafValues>
            -2.7886208891868591e-001 1.5455131232738495e-001</leafValues></_>
        <_>
          <internalNodes>
            0 -1 234 -201793284 -18809116 26214837 150674486 -187303704
            -16931655 577971574 795602751</internalNodes>
          <leafValues>
            -2.2685091197490692e-001 1.7749997973442078e-001</leafValues></_>
        <_>
          <internalNodes>
            0 -1 417 -368850190 -1964094368 960317904 -1279204848
            1407699198 -331355870 -1034902656 -792202719</internalNodes>
          <leafValues>
            -2.0177598297595978e-001 1.9870895147323608e-001</leafValues></_>
        <_>
          <internalNodes>
            0 -1 856 -471864702 1112335755 -1608199972 287041861
            44532624 4528685 -423962950 -780930325</internalNodes>
          <leafValues>
            -1.7579819262027740e-001 2.2126746177673340e-001</leafValues></_>
        <_>
          <internalNodes>
            0 -1 1261 -2009672193 99495408 71046653 160992396
            -1500993864 -1917276230 -1930777857 -1996817409</internalNodes>
          <leafValues>
            -1.6023156046867371e-001 2.3436866700649261e-001</leafValues></_>
        <_>
          <internalNodes>
            0 -1 1201 -534772688 456657132 -545882632 -39447248
            667694780 -1706390839 -562677094 -1744643270</internalNodes>
          <leafValues>
            -2.2999635338783264e-001 1.5752711892127991e-001</leafValues></_>
        <_>
          <internalNodes>
            0 -1 350 -97874440 1898971192 597564408 464716080 1558720648
            607391264 2037988504 2075355707</internalNodes>
          <leafValues>
            -2.3088794946670532e-001 1.5900141000747681e-001</leafValues></_>
        <_>
          <internalNodes>
            0 -1 971 -462490576 -751078005 2088501049 -1155158137
            -914495799 -101397061 -93978902 -1071398889</internalNodes>
          <leafValues>
            -1.6092793643474579e-001 2.2571517527103424e-001</leafValues></_>
        <_>
          <internalNodes>
            0 -1 1116 -84939758 1530158715 -501194668 141824248
            1155680336 -43001694 -1034498912 -187177289</internalNodes>
          <leafValues>
            -2.1330128610134125e-001 1.6161917150020599e-001</leafValues></_>
        <_>
          <internalNodes>
            0 -1 127 2069222393 -8403787 2021356775 -143305297
            1796839871 -71988897 422993278 2143269675</internalNodes>
          <leafValues>
            -1.4728613197803497e-001 2.3532274365425110e-001</leafValues></_>
        <_>
          <internalNodes>
            0 -1 205 1082581520 19956242 292648785 389101219 134333883
            -2010044936 -120529456 -483920105</internalNodes>
          <leafValues>
            -2.0371611416339874e-001 1.6751471161842346e-001</leafValues></_>
        <_>
          <internalNodes>
            0 -1 946 -371200038 388006747 890504730 1570353915
            1821483226 9973573 1722862298 -536887569</internalNodes>
          <leafValues>
            -1.3368274271488190e-001 2.5753125548362732e-001</leafValues></_>
        <_>
          <internalNodes>
            0 -1 264 1596406768 932262008 1786387319 931077672
            1955857145 694026849 2142779408 -72403157</internalNodes>
          <leafValues>
            -1.8787461519241333e-001 1.8577732145786285e-001</leafValues></_>
        <_>
          <internalNodes>
            0 -1 443 -472913270 -42016472 934261280 1963109922
            1160161272 151282569 1472377289 -9177158</internalNodes>
          <leafValues>
            -1.4850452542304993e-001 2.2039464116096497e-001</leafValues></_>
        <_>
          <internalNodes>
            0 -1 811 -905795980 -261185752 -66571209 -747787056
            677679316 -356880842 1079357584 -929642416</internalNodes>
          <leafValues>
            -1.8441562354564667e-001 1.8087989091873169e-001</leafValues></_>
        <_>
          <internalNodes>
            0 -1 831 -389554598 -1299199104 -2056325056 -624125440
            -200357716 -336886970 -1065303424 -1069489408</internalNodes>
          <leafValues>
            -2.1284380555152893e-001 1.4400804042816162e-001</leafValues></_>
        <_>
          <internalNodes>
            0 -1 1 1865784307 1039674359 -1078378830 1946155002
            1607444222 2143190518 -168345697 1842216367</internalNodes>
          <leafValues>
            -1.2063513696193695e-001 2.6335513591766357e-001</leafValues></_>
        <_>
          <internalNodes>
            0 -1 1031 -560931600 924847664 777258751 1035090256
            767429804 148465808 469770218 -1077986421</internalNodes>
          <leafValues>
            -1.7133553326129913e-001 1.8099820613861084e-001</leafValues></_>
        <_>
          <internalNodes>
            0 -1 679 -883432446 1601959503 -278217838 629780014
            -505600791 -1090343500 -558892054 1076030983</internalNodes>
          <leafValues>
            -2.0294287800788879e-001 1.4960673451423645e-001</leafValues></_>
        <_>
          <internalNodes>
            0 -1 639 -143661525 1443771592 -323790604 -368658014
            1197663940 1948486621 -556087814 -1058053625</internalNodes>
          <leafValues>
            -1.6237948834896088e-001 1.8559883534908295e-001</leafValues></_>
        <_>
          <internalNodes>
            0 -1 1340 103303197 508304797 1044167025 114303798 792379098
            -859892824 -911806486 251175963</internalNodes>
          <leafValues>
            -2.0760653913021088e-001 1.4162518084049225e-001</leafValues></_>
        <_>
          <internalNodes>
            0 -1 310 1611647008 1498371760 -1610702061 464474146
            1660668594 -579350448 1081564808 1159152640</internalNodes>
          <leafValues>
            -2.2969339787960052e-001 1.2568341195583344e-001</leafValues></_>
        <_>
          <internalNodes>
            0 -1 626 -185080161 994223910 1769703356 468769374
            1953863864 648325143 1089209364 -1003371313</internalNodes>
          <leafValues>
            -1.6893126070499420e-001 1.7037589848041534e-001</leafValues></_>
        <_>
          <internalNodes>
            0 -1 988 -230766350 -1625680360 1948335961 1971351568
            -1186459230 -1632881642 -866775640 -670118718</internalNodes>
          <leafValues>
            -1.3384708762168884e-001 2.1410830318927765e-001</leafValues></_>
        <_>
          <internalNodes>
            0 -1 314 1081271428 1963237132 634683477 -1383145433
            26834897 -1295097352 1685957631 703146683</internalNodes>
          <leafValues>
            -2.1123874187469482e-001 1.3999967277050018e-001</leafValues></_></weakClassifiers></_>
    <!-- stage 1 -->
    <_>
      <maxWeakCount>54</maxWeakCount>
      <stageThreshold>-1.9335260391235352e+000</stageThreshold>
      <weakClassifiers>
        <_>
          <internalNodes>
            0 -1 159 2147482623 2013264895 930296831 2147483647
            2004876287 291321279 2147483647 2147483647</internalNodes>
          <leafValues>
            -4.9293002486228943e-001 3.5445463657379150e-001</leafValues></_>
        <_>
          <internalNodes>
            0 -1 147 -219684190 -136849473 1425520255 -234881029
            -509611013 -187368992 -135792897 -235407377</internalNodes>
          <leafValues>
            -2.6602524518966675e-001 3.2003575563430786e-001</leafValues></_>
        <_>
          <internalNodes>
            0 -1 872 1053813 993344893 498876287 1072897021 1001129151
            -1079230468 268319487 -1073790977</internalNodes>
          <leafValues>
            -2.4306415021419525e-001 2.8586980700492859e-001</leafValues></_>
        <_>
          <internalNodes>
            0 -1 576 -67393862 1004679930 618135728 523442718 532098744
            1034436244 1784615902 2147483631</internalNodes>
          <leafValues>
            -2.4297672510147095e-001 2.2351856529712677e-001</leafValues></_>
        <_>
          <internalNodes>
            0 -1 271 -714870326 -44111526 1412676087 1909158779
            -1041512258 -128518440 637008351 1677701947</internalNodes>
          <leafValues>
            -2.0119222998619080e-001 2.5349137187004089e-001</leafValues></_>
        <_>
          <internalNodes>
            0 -1 974 -903313328 -548005584 -752582663 -753919964
            -402218360 -300900220 -2100236610 -2147483648</internalNodes>
          <leafValues>
            -2.3180063068866730e-001 2.0204134285449982e-001</leafValues></_>
        <_>
          <internalNodes>
            0 -1 1421 1337521147 -604415620 2073548779 226300783
            -891625473 -50764801 -104992785 1341700863</internalNodes>
          <leafValues>
            -1.8448406457901001e-001 2.3040589690208435e-001</leafValues></_>
        <_>
          <internalNodes>
            0 -1 776 -470818262 1627828203 1089734688 -738467410
            1461690508 33915276 -671616818 -143656001</internalNodes>
          <leafValues>
            -1.8416841328144073e-001 2.4312189221382141e-001</leafValues></_>
        <_>
          <internalNodes>
            0 -1 622 -134217729 -552802668 -1068569600 -924523390
            -648231296 -24780144 -194927616 -1065882110</internalNodes>
          <leafValues>
            -1.8935324251651764e-001 2.0426462590694427e-001</leafValues></_>
        <_>
          <internalNodes>
            0 -1 118 1604140405 2147433279 2146697213 -321171 -67885889
            -6348866 -4688163 -442512</internalNodes>
          <leafValues>
            -1.5039783716201782e-001 2.5062245130538940e-001</leafValues></_>
        <_>
          <internalNodes>
            0 -1 587 -923868672 1946136359 909101943 658485035
            2045739951 781182311 1206087439 517895</internalNodes>
          <leafValues>
            -2.3761318624019623e-001 1.6484452784061432e-001</leafValues></_>
        <_>
          <internalNodes>
            0 -1 1146 -21307426 402435316 926423197 162007732 884480508
            256904694 968105624 -1346383873</internalNodes>
          <leafValues>
            -2.0062278211116791e-001 1.9651505351066589e-001</leafValues></_>
        <_>
          <internalNodes>
            0 -1 457 -1027 867697384 1064378364 521870768 1065885688
            1073235253 930614712 -4489217</internalNodes>
          <leafValues>
            -1.2917011976242065e-001 2.4581652879714966e-001</leafValues></_>
        <_>
          <internalNodes>
            0 -1 1114 -557929406 896139018 1616788592 807463074
            -631813120 -11150506 -129574686 -261884173</internalNodes>
          <leafValues>
            -2.0332819223403931e-001 1.5128254890441895e-001</leafValues></_>
        <_>
          <internalNodes>
            0 -1 126 1565612505 -16171818 867023321 2137519981
            -1208568865 -12747543 466908137 2135797359</internalNodes>
          <leafValues>
            -1.6770268976688385e-001 1.8253530561923981e-001</leafValues></_>
        <_>
          <internalNodes>
            0 -1 858 -285220318 539947947 -531782112 1386938158
            1389826309 1365435790 1467614598 -186122426</internalNodes>
          <leafValues>
            -2.0777124166488647e-001 1.5343037247657776e-001</leafValues></_>
        <_>
          <internalNodes>
            0 -1 28 -534712750 -267372025 230712341 -551439597
            -2005084952 -1096375500 273010456 1129797139</internalNodes>
          <leafValues>
            -2.2487242519855499e-001 1.3053883612155914e-001</leafValues></_>
        <_>
          <internalNodes>
            0 -1 1161 -631320360 -553479076 540829435 1493331136
            -874868344 -1976017814 -1671659110 -368382838</internalNodes>
          <leafValues>
            -1.1749553680419922e-001 2.4428462982177734e-001</leafValues></_>
        <_>
          <internalNodes>
            0 -1 1412 1878850559 999269820 -16952833 969435354 -610305
            -1359036740 1542446075 265075967</internalNodes>
          <leafValues>
            -1.6044673323631287e-001 1.7747324705123901e-001</leafValues></_>
        <_>
          <internalNodes>
            0 -1 372 -608174374 -456394622 -555536768 -527765920
            -172034639 -1998291563 -841747584 -264768585</internalNodes>
          <leafValues>
            -1.7853859066963196e-001 1.6352368891239166e-001</leafValues></_>
        <_>
          <internalNodes>
            0 -1 779 -105660798 353151973 440478236 2136791722
            1293731272 151348736 1789594812 -73404449</internalNodes>
          <leafValues>
            -1.4868599176406860e-001 1.9437445700168610e-001</leafValues></_>
        <_>
          <internalNodes>
            0 -1 1075 1157541630 275809400 15872820 23104248 137691386
            215366888 888408298 149673470</internalNodes>
          <leafValues>
            -2.3911666870117188e-001 1.1473957449197769e-001</leafValues></_>
        <_>
          <internalNodes>
            0 -1 902 1611063296 -1288670125 -870703309 -987704731
            1089470514 -582571049 -280565122 -1057493153</internalNodes>
          <leafValues>
            -1.8653248250484467e-001 1.4960429072380066e-001</leafValues></_>
        <_>
          <internalNodes>
            0 -1 614 -423631726 -963991520 1619718736 -49419168
            -219180336 -2105399040 612560080 -800726832</internalNodes>
          <leafValues>
            -1.6785542666912079e-001 1.6984502971172333e-001</leafValues></_>
        <_>
          <internalNodes>
            0 -1 91 2138668285 -37810433 -147621417 -46162177 -760171842
            -5689849 -1085866309 -12768277</internalNodes>
          <leafValues>
            -8.5014097392559052e-002 3.1401661038398743e-001</leafValues></_>
        <_>
          <internalNodes>
            0 -1 681 -856759177 -1048902 -23748609 -145243484
            -1260390727 -1090781261 1531791102 -119283005</internalNodes>
          <leafValues>
            -9.4793289899826050e-002 2.8081294894218445e-001</leafValues></_>
        <_>
          <internalNodes>
            0 -1 341 -1010046374 1034062234 1709606420 1703950848
            1075849980 225750776 1425302248 -116923289</internalNodes>
          <leafValues>
            -1.5799786150455475e-001 1.6870315372943878e-001</leafValues></_>
        <_>
          <internalNodes>
            0 -1 255 2104435090 454058810 2024151376 2146665712
            1626674320 470824820 1977953148 2145909499</internalNodes>
          <leafValues>
            -2.0103482902050018e-001 1.3250069320201874e-001</leafValues></_>
        <_>
          <internalNodes>
            0 -1 1042 -923893228 -1192011237 -947978866 -1279595527
            419335838 -656741238 -25848182 -1475312062</internalNodes>
          <leafValues>
            -1.7303870618343353e-001 1.5037414431571960e-001</leafValues></_>
        <_>
          <internalNodes>
            0 -1 159 -681791562 -1621093137 2084040638 -1581958964
            -1624688394 -290263052 -1243605314 -2129451286</internalNodes>
          <leafValues>
            -1.3965831696987152e-001 1.8304587900638580e-001</leafValues></_>
        <_>
          <internalNodes>
            0 -1 398 -175143750 303089234 1689723440 364021326
            -2145466960 560271538 -1129306696 800527755</internalNodes>
          <leafValues>
            -1.9750122725963593e-001 1.3019944727420807e-001</leafValues></_>
        <_>
          <internalNodes>
            0 -1 599 -422854138 570751246 819751968 719367328 1592476420
            67595561 1571381248 1089728327</internalNodes>
          <leafValues>
            -3.8212063908576965e-001 6.5985649824142456e-002</leafValues></_>
        <_>
          <internalNodes>
            0 -1 759 -566590896 -1686108566 1592197073 -218082604
            1239811228 -1374268840 -1206600744 -647827232</internalNodes>
          <leafValues>
            -1.4270973205566406e-001 1.7678514122962952e-001</leafValues></_>
        <_>
          <internalNodes>
            0 -1 924 -757404709 -605098257 2025595932 9363026 -287964926
            1386983254 -199142844 1411906147</internalNodes>
          <leafValues>
            -2.1752668917179108e-001 1.1805302649736404e-001</leafValues></_>
        <_>
          <internalNodes>
            0 -1 1397 2075717887 -536943684 1595932629 -104988965
            -1082067202 -353589315 -1214402562 -1142292497</internalNodes>
          <leafValues>
            -7.5440123677253723e-002 3.3169963955879211e-001</leafValues></_>
        <_>
          <internalNodes>
            0 -1 583 422580689 926682724 1979219825 520689661 1008469432
            -539224079 1274969775 -4571185</internalNodes>
          <leafValues>
            -1.2300411611795425e-001 2.0019908249378204e-001</leafValues></_>
        <_>
          <internalNodes>
            0 -1 128 1613836629 1072111059 461967695 1268477083
            2147102288 -437507077 715553093 796532069</internalNodes>
          <leafValues>
            -1.9675438106060028e-001 1.3162414729595184e-001</leafValues></_>
        <_>
          <internalNodes>
            0 -1 771 -176184654 19939090 1043641855 419599968 -806622552
            1502197024 49123000 -1174405477</internalNodes>
          <leafValues>
            -1.4355883002281189e-001 1.8171150982379913e-001</leafValues></_>
        <_>
          <internalNodes>
            0 -1 899 -454382028 -213248158 -97347074 1038086647
            -1179141948 -1897474216 -1842022688 -661851983</internalNodes>
          <leafValues>
            -1.4596439898014069e-001 1.7478615045547485e-001</leafValues></_>
        <_>
          <internalNodes>
            0 -1 675 1347617543 2030136375 639895163 -539233154 13459343
            217833569 2130151579 -1025508693</internalNodes>
          <leafValues>
            -1.2705039978027344e-001 2.0938730239868164e-001</leafValues></_>
        <_>
          <internalNodes>
            0 -1 289 1943009598 1901084354 754099460 294789552 519386168
            1532244989 545687752 591099459</internalNodes>
          <leafValues>
            -2.1378242969512939e-001 1.1665836721658707e-001</leafValues></_>
        <_>
          <internalNodes>
            0 -1 864 1016507576 413150906 253764990 221290112 1517939904
            203164724 317842488 1287642622</internalNodes>
          <leafValues>
            -2.3200128972530365e-001 1.0235852748155594e-001</leafValues></_>
        <_>
          <internalNodes>
            0 -1 996 -142606377 -685007470 1006616125 1562240065
            -272662808 -16847070 678457848 -62720446</internalNodes>
          <leafValues>
            -1.1247184872627258e-001 2.1620105206966400e-001</leafValues></_>
        <_>
          <internalNodes>
            0 -1 601 -729962318 280767548 -1464850124 -2118622588
            1933575604 1414856550 -252430280 1039491563</internalNodes>
          <leafValues>
            -2.0802891254425049e-001 1.1927859485149384e-001</leafValues></_>
        <_>
          <internalNodes>
            0 -1 1407 999822033 -38330307 772781715 333987370 618442939
            871228332 2139483583 1330162061</internalNodes>
          <leafValues>
            -1.7083030939102173e-001 1.4511963725090027e-001</leafValues></_>
        <_>
          <internalNodes>
            0 -1 225 -961296624 1435549019 770353462 -208685228
            349008352 89088432 1101075608 1933178574</internalNodes>
          <leafValues>
            -1.8498569726943970e-001 1.3523393869400024e-001</leafValues></_>
        <_>
          <internalNodes>
            0 -1 406 1324803982 1436532007 -310647811 -1412966714
            1517774063 -21897235 1744223743 -998030010</internalNodes>
          <leafValues>
            -1.4202263951301575e-001 1.7110753059387207e-001</leafValues></_>
        <_>
          <internalNodes>
            0 -1 647 -342121966 498919450 261096496 1031299450 263195112
            1052781942 2062361354 -908332273</internalNodes>
          <leafValues>
            -1.5501166880130768e-001 1.5814562141895294e-001</leafValues></_>
        <_>
          <internalNodes>
            0 -1 5 40347778 708535058 1837327092 263967776 1213419455
            1537980771 7328842 -533597902</internalNodes>
          <leafValues>
            -1.9199140369892120e-001 1.2831108272075653e-001</leafValues></_>
        <_>
          <internalNodes>
            0 -1 1326 204482827 640727444 -1867162385 210041461
            279748093 -1907438630 187198607 138978125</internalNodes>
          <leafValues>
            -2.2622832655906677e-001 1.0614932328462601e-001</leafValues></_>
        <_>
          <internalNodes>
            0 -1 889 -319912368 -658891778 -578351714 -1245846409
            -286009632 -124064556 -1117685862 -2004792800</internalNodes>
          <leafValues>
            -1.4502863585948944e-001 1.6394692659378052e-001</leafValues></_>
        <_>
          <internalNodes>
            0 -1 1235 70259408 144199520 229658423 701313967 250478811
            712544799 -2024535637 -1364581990</internalNodes>
          <leafValues>
            -1.7446959018707275e-001 1.3645870983600616e-001</leafValues></_>
        <_>
          <internalNodes>
            0 -1 383 -562562296 590067502 -147958936 -789384718
            2033712569 1182530855 -967044895 -672139969</internalNodes>
          <leafValues>
            -1.5176260471343994e-001 1.5658262372016907e-001</leafValues></_>
        <_>
          <internalNodes>
            0 -1 987 -353903691 1604446482 -1377652351 227645454
            -1003110440 -1610939382 -858520292 -773458865</internalNodes>
          <leafValues>
            -1.2018005549907684e-001 1.9311228394508362e-001</leafValues></_></weakClassifiers></_>
    <!-- stage 2 -->
    <_>
      <maxWeakCount>71</maxWeakCount>
      <stageThreshold>-1.8122459650039673e+000</stageThreshold>
      <weakClassifiers>
        <_>
          <internalNodes>
            0 -1 149 -2097153 2147483647 838275834 2080373759 2147482623
            1073689535 2147480575 2147482623</internalNodes>
          <leafValues>
            -4.5154011249542236e-001 2.8449493646621704e-001</leafValues></_>
        <_>
          <internalNodes>
            0 -1 668 67113077 938477021 219945373 1065303868 259538876
            -1073864739 1039415807 -1073790977</internalNodes>
          <leafValues>
            -2.6213905215263367e-001 2.0907410979270935e-001</leafValues></_>
        <_>
          <internalNodes>
            0 -1 207 -1037638942 -134876457 5741433 -201852929
            -755896337 -65734064 -168034305 -168299533</internalNodes>
          <leafValues>
            -2.1290288865566254e-001 2.5415900349617004e-001</leafValues></_>
        <_>
          <internalNodes>
            0 -1 174 1533017087 570404602 320013242 1442707315
            1677144650 1311710 1942353663 2013264895</internalNodes>
          <leafValues>
            -2.1376256644725800e-001 2.0256243646144867e-001</leafValues></_>
        <_>
          <internalNodes>
            0 -1 654 -65538 1060115100 503193464 523244144 1056521724
            1065121757 2112117496 -2101281</internalNodes>
          <leafValues>
            -1.1434199661016464e-001 2.8912803530693054e-001</leafValues></_>
        <_>
          <internalNodes>
            0 -1 87 2147350527 -536888837 -2049 -3073 -1048577 -5580865
            -167772165 -131073</internalNodes>
          <leafValues>
            -1.1975474655628204e-001 4.6934673190116882e-001</leafValues></_>
        <_>
          <internalNodes>
            0 -1 535 -290193490 -203426705 2121736191 -1074790465
            -119549969 -269776989 1879047055 1074262871</internalNodes>
          <leafValues>
            -1.8390747904777527e-001 1.9471742212772369e-001</leafValues></_>
        <_>
          <internalNodes>
            0 -1 939 -134225406 1107744590 -1041858046 1896545242
            -697319411 1095172892 -406590754 -205523089</internalNodes>
          <leafValues>
            -1.3767787814140320e-001 2.2583536803722382e-001</leafValues></_>
        <_>
          <internalNodes>
            0 -1 1417 453032703 -73528452 969275391 827524509 1072278507
            -4344644 -807478277 261672126</internalNodes>
          <leafValues>
            -1.7931856215000153e-001 1.7990593612194061e-001</leafValues></_>
        <_>
          <internalNodes>
            0 -1 316 -704122368 -145763406 9585951 1059569527 -865107728
            -75696468 291762171 592444159</internalNodes>
          <leafValues>
            -2.0681995153427124e-001 1.5697844326496124e-001</leafValues></_>
        <_>
          <internalNodes>
            0 -1 1144 -33 1073425049 903229311 402538100 1022106876
            1039947946 249306812 -1342182405</internalNodes>
          <leafValues>
            -1.1957543343305588e-001 2.5609263777732849e-001</leafValues></_>
        <_>
          <internalNodes>
            0 -1 1247 -258221858 -134749694 1188744372 378073152
            -966095736 -612971708 -120265016 -1073680320</internalNodes>
          <leafValues>
            -1.8018877506256104e-001 1.5915007889270782e-001</leafValues></_>
        <_>
          <internalNodes>
            0 -1 1321 168300029 -1665647076 1597863803 92825849
            744529596 -1438736983 1152101567 -1900270404</internalNodes>
          <leafValues>
            -1.6301968693733215e-001 1.6431184113025665e-001</leafValues></_>
        <_>
          <internalNodes>
            0 -1 715 -402659794 -479204481 1658618018 -234881286
            -445663443 1665473590 -738724928 -134218881</internalNodes>
          <leafValues>
            -1.4557650685310364e-001 1.7796881496906281e-001</leafValues></_>
        <_>
          <internalNodes>
            0 -1 112 2138930681 -545658887 2107775835 -105273480
            1585039036 -1343569926 1060121501 2145130844</internalNodes>
          <leafValues>
            -1.8901523947715759e-001 1.3982445001602173e-001</leafValues></_>
        <_>
          <internalNodes>
            0 -1 469 33720464 -1613551088 727024436 496437042 149688317
            -1074047507 1092836281 136658944</internalNodes>
          <leafValues>
            -2.8971627354621887e-001 9.0277194976806641e-002</leafValues></_>
        <_>
          <internalNodes>
            0 -1 423 -554696709 -1970864414 -724766608 -1870407456
            -222837522 -1070268425 -956959504 -990380557</internalNodes>
          <leafValues>
            -1.5735010802745819e-001 1.6242028772830963e-001</leafValues></_>
        <_>
          <internalNodes>
            0 -1 460 -7185156 529666336 2004633017 1069286782 773073148
            448669308 2132153272 -1086623700</internalNodes>
          <leafValues>
            -1.6396103799343109e-001 1.5402333438396454e-001</leafValues></_>
        <_>
          <internalNodes>
            0 -1 882 -620829680 -713898507 -639781890 2138855283
            -1373919781 -40404001 -1091728645 -935206397</internalNodes>
          <leafValues>
            -1.3338239490985870e-001 1.7754940688610077e-001</leafValues></_>
        <_>
          <internalNodes>
            0 -1 991 -51123694 995359653 1894035536 1890715179 314458688
            -43988364 1844955342 -252182681</internalNodes>
          <leafValues>
            -1.7268213629722595e-001 1.3629446923732758e-001</leafValues></_>
        <_>
          <internalNodes>
            0 -1 719 2137504954 496794810 682110672 2101439354 687572648
            780678588 268796810 -1048881</internalNodes>
          <leafValues>
            -1.3222514092922211e-001 1.7184147238731384e-001</leafValues></_>
        <_>
          <internalNodes>
            0 -1 153 1085270832 210672900 -520674766 -393773270
            1392333215 -18783257 1457349808 -457705817</internalNodes>
          <leafValues>
            -1.8582211434841156e-001 1.2406800687313080e-001</leafValues></_>
        <_>
          <internalNodes>
            0 -1 127 2069975423 2080363897 835435759 2102891791
            -1503284738 -373302729 271931503 1060502368</internalNodes>
          <leafValues>
            -1.6096645593643188e-001 1.4565908908843994e-001</leafValues></_>
        <_>
          <internalNodes>
            0 -1 239 -926882544 -1659762941 -852474799 -687784462
            630247580 -931897708 1214253913 1359464223</internalNodes>
          <leafValues>
            -1.8405497074127197e-001 1.2595835328102112e-001</leafValues></_>
        <_>
          <internalNodes>
            0 -1 973 -932780542 1895006115 -604311629 1899756981
            -233156952 -26243601 -1454198 -1071389885</internalNodes>
          <leafValues>
            -1.4023251831531525e-001 1.6225145757198334e-001</leafValues></_>
        <_>
          <internalNodes>
            0 -1 488 -240127614 -1016336224 1912815824 -779650912
            -538008960 1075103874 272929920 -800593696</internalNodes>
          <leafValues>
            -1.4000855386257172e-001 1.5728491544723511e-001</leafValues></_>
        <_>
          <internalNodes>
            0 -1 1078 -529537526 1133442826 44298944 537584366
            1674011465 39110145 -120747348 1102834655</internalNodes>
          <leafValues>
            -2.0096060633659363e-001 1.1123797297477722e-001</leafValues></_>
        <_>
          <internalNodes>
            0 -1 230 1601207793 1001799026 -132182731 -1086902663
            1999600125 1072581074 1002192696 -15779020</internalNodes>
          <leafValues>
            -1.5767896175384521e-001 1.4253123104572296e-001</leafValues></_>
        <_>
          <internalNodes>
            0 -1 677 -534223820 -683094896 -840308005 1575537970
            -27871306 -1092489537 -1265151813 -1666881834</internalNodes>
          <leafValues>
            -1.2630172073841095e-001 1.7339214682579041e-001</leafValues></_>
        <_>
          <internalNodes>
            0 -1 830 -269504833 -586957845 1105766528 1839524424
            -989339736 -545325620 -710586944 -708313377</internalNodes>
          <leafValues>
            -1.1437018960714340e-001 1.9204528629779816e-001</leafValues></_>
        <_>
          <internalNodes>
            0 -1 1278 -576004619 -1754126128 -1757913603 1067990527
            710479099 -1886438528 -1142931718 -1361344113</internalNodes>
          <leafValues>
            -1.0440096259117126e-001 2.0730741322040558e-001</leafValues></_>
        <_>
          <internalNodes>
            0 -1 1378 1600454651 -536883726 -1749035557 -234945794
            -2108120613 -90386697 -22305365 -398593</internalNodes>
          <leafValues>
            -6.4062498509883881e-002 3.4384635090827942e-001</leafValues></_>
        <_>
          <internalNodes>
            0 -1 734 1383539255 1092051923 540567391 -1212224377
            1426021551 1484596603 317037790 -656023921</internalNodes>
          <leafValues>
            -1.2248414754867554e-001 1.7866662144660950e-001</leafValues></_>
        <_>
          <internalNodes>
            0 -1 347 -1058807254 1755851528 327550072 -1862219330
            40707076 5521171 1192596736 1595864935</internalNodes>
          <leafValues>
            -2.2426138818264008e-001 9.9042713642120361e-002</leafValues></_>
        <_>
          <internalNodes>
            0 -1 1192 37227732 -1787288880 795090687 999701740 540287736
            -1637480518 777912510 -1622538596</internalNodes>
          <leafValues>
            -1.7941196262836456e-001 1.2161698192358017e-001</leafValues></_>
        <_>
          <internalNodes>
            0 -1 435 1382999968 648865436 951322160 -1518274974
            1913478020 2117393181 1693742664 585856102</internalNodes>
          <leafValues>
            -2.5168359279632568e-001 8.5641987621784210e-002</leafValues></_>
        <_>
          <internalNodes>
            0 -1 693 -1037393264 -1139908568 -701151499 -247369096
            1100518856 -1448515548 476087500 -668933820</internalNodes>
          <leafValues>
            -1.5157474577426910e-001 1.4527308940887451e-001</leafValues></_>
        <_>
          <internalNodes>
            0 -1 831 -146284589 444851990 -949633320 -1341857980
            1980729542 -915491050 -468664176 -1002120636</internalNodes>
          <leafValues>
            -1.6430073976516724e-001 1.3180707395076752e-001</leafValues></_>
        <_>
          <internalNodes>
            0 -1 203 1074243250 51618387 18942864 1609805370 85805051
            421598867 1285508240 1290750235</internalNodes>
          <leafValues>
            -1.6883882880210876e-001 1.2340258806943893e-001</leafValues></_>
        <_>
          <internalNodes>
            0 -1 232 7753939 790527227 -444785041 -1351541921 1084499061
            -103530642 -1187117215 2147422013</internalNodes>
          <leafValues>
            -1.6125456988811493e-001 1.3194550573825836e-001</leafValues></_>
        <_>
          <internalNodes>
            0 -1 1061 -655768944 -1692781016 -1571134601 1016627872
            -950761272 -893510110 -2099209783 -932645376</internalNodes>
          <leafValues>
            -1.4095455408096313e-001 1.5137365460395813e-001</leafValues></_>
        <_>
          <internalNodes>
            0 -1 784 -677865740 1030765728 749536500 1000417428
            967740830 1026364956 76028616 -1141227697</internalNodes>
          <leafValues>
            -1.5251950919628143e-001 1.3378809392452240e-001</leafValues></_>
        <_>
          <internalNodes>
            0 -1 407 1856956448 2032725870 -444667577 -339363740
            1131206603 -1678956612 1425498318 1080280324</internalNodes>
          <leafValues>
            -1.8471142649650574e-001 1.1156563460826874e-001</leafValues></_>
        <_>
          <internalNodes>
            0 -1 1362 494675197 -1668501515 -2096047838 800927097
            702127346 -214470241 -278062100 1878635419</internalNodes>
          <leafValues>
            -1.5999478101730347e-001 1.3074913620948792e-001</leafValues></_>
        <_>
          <internalNodes>
            0 -1 245 -139592144 -1666786646 -1977170768 -794512734
            -1664879186 -776620616 -260978944 -729287277</internalNodes>
          <leafValues>
            -1.5757262706756592e-001 1.2949082255363464e-001</leafValues></_>
        <_>
          <internalNodes>
            0 -1 292 1754243870 1474355118 459421468 2072162890
            1143628703 1316293191 1475360169 -173714049</internalNodes>
          <leafValues>
            -1.4394156634807587e-001 1.4027187228202820e-001</leafValues></_>
        <_>
          <internalNodes>
            0 -1 569 -822097088 614615790 -617960894 -2102739026
            1652504337 6209383 1935840016 -1066348496</internalNodes>
          <leafValues>
            -2.3307155072689056e-001 8.8081635534763336e-002</leafValues></_>
        <_>
          <internalNodes>
            0 -1 624 1138226047 -1142492478 682520917 -1621558150
            -353930071 -96483590 1294929944 -389221752</internalNodes>
          <leafValues>
            -1.2564525008201599e-001 1.5948955714702606e-001</leafValues></_>
        <_>
          <internalNodes>
            0 -1 572 -354704894 1997557626 740154228 349997880
            2004854668 1424809669 -344170476 2096101439</internalNodes>
          <leafValues>
            -1.7762333154678345e-001 1.1267784982919693e-001</leafValues></_>
        <_>
          <internalNodes>
            0 -1 1087 -1725972490 271678128 932055698 751733132
            1222352312 138225077 -1430276866 1323824623</internalNodes>
          <leafValues>
            -1.6305120289325714e-001 1.2162280082702637e-001</leafValues></_>
        <_>
          <internalNodes>
            0 -1 1403 377544185 -103841547 484830101 2145196276
            -1410154598 -1418727550 -537527873 -1140990993</internalNodes>
          <leafValues>
            -8.0713845789432526e-002 2.5295853614807129e-001</leafValues></_>
        <_>
          <internalNodes>
            0 -1 732 1424402450 1970244511 884154294 362870442 543106476
            -1105987802 1623671258 615706170</internalNodes>
          <leafValues>
            -1.8656639754772186e-001 1.0971201956272125e-001</leafValues></_>
        <_>
          <internalNodes>
            0 -1 1272 -759233378 1557710556 1987747964 336104578
            -70870886 -1680914910 -958996784 -1033831984</internalNodes>
          <leafValues>
            -1.5824884176254272e-001 1.2648259103298187e-001</leafValues></_>
        <_>
          <internalNodes>
            0 -1 273 1892722568 2082473906 155662951 519143251
            1846580429 -1702983967 1572809329 1250800147</internalNodes>
          <leafValues>
            -1.7630685865879059e-001 1.1389829963445663e-001</leafValues></_>
        <_>
          <internalNodes>
            0 -1 1347 1515291103 -103098537 1706138087 64837593
            872336123 -1101059149 1605300735 1301274255</internalNodes>
          <leafValues>
            -1.1677619814872742e-001 1.7378166317939758e-001</leafValues></_>
        <_>
          <internalNodes>
            0 -1 168 1179632160 1025149962 1626792241 -1621554174
            202871192 511052968 1086497240 1735095131</internalNodes>
          <leafValues>
            -1.7066115140914917e-001 1.1820456385612488e-001</leafValues></_>
        <_>
          <internalNodes>
            0 -1 667 -1255006991 905188088 -123779 932196920 170005180
            -1135866708 -1386206552 -1149369542</internalNodes>
          <leafValues>
            -1.2367123365402222e-001 1.6089195013046265e-001</leafValues></_>
        <_>
          <internalNodes>
            0 -1 751 -996171774 8322434 284470808 616214062 1139893520
            74656343 1781883920 1894252147</internalNodes>
          <leafValues>
            -2.8008925914764404e-001 7.1979984641075134e-002</leafValues></_>
        <_>
          <internalNodes>
            0 -1 697 -805577829 994226746 758920597 -830956960 4981948
            -368317590 -872097308 -328141888</internalNodes>
          <leafValues>
            -1.3884052634239197e-001 1.4321587979793549e-001</leafValues></_>
        <_>
          <internalNodes>
            0 -1 348 2028939666 1974732255 1114637809 1424090098
            977498010 2063145804 1364457628 1867439039</internalNodes>
          <leafValues>
            -1.5789860486984253e-001 1.2329997122287750e-001</leafValues></_>
        <_>
          <internalNodes>
            0 -1 1227 -169879653 1496352959 482801497 899194361
            854357432 1602178287 -749086820 -302132578</internalNodes>
          <leafValues>
            -9.0864837169647217e-002 2.1743109822273254e-001</leafValues></_>
        <_>
          <internalNodes>
            0 -1 86 1537004761 -586024468 977072121 2147302425 -79953926
            -92389378 -34737159 -5375233</internalNodes>
          <leafValues>
            -6.8043969571590424e-002 2.8944233059883118e-001</leafValues></_>
        <_>
          <internalNodes>
            0 -1 652 -359666942 1086628550 -1070717406 -1250813
            1532441994 805596029 -1279657298 -774644269</internalNodes>
          <leafValues>
            -1.3874803483486176e-001 1.4775669574737549e-001</leafValues></_>
        <_>
          <internalNodes>
            0 -1 1165 -25167845 492285487 416480286 -1870398796
            -1234806264 1600114783 -521535538 -231480649</internalNodes>
          <leafValues>
            -1.2185993790626526e-001 1.6314794123172760e-001</leafValues></_>
        <_>
          <internalNodes>
            0 -1 353 630470960 299449980 1291784437 925899996 500835740
            -1717724290 973874425 1071385616</internalNodes>
          <leafValues>
            -2.8561872243881226e-001 6.8927817046642303e-002</leafValues></_>
        <_>
          <internalNodes>
            0 -1 263 -441453446 2066773970 -880106640 1537522338
            -1032465500 618139373 1631652008 -1246240994</internalNodes>
          <leafValues>
            -1.3255864381790161e-001 1.4947892725467682e-001</leafValues></_>
        <_>
          <internalNodes>
            0 -1 411 -923484016 -1710556518 1555114769 222658993
            -1999313420 -396068639 -453688694 -331092509</internalNodes>
          <leafValues>
            -1.5005989372730255e-001 1.3365723192691803e-001</leafValues></_>
        <_>
          <internalNodes>
            0 -1 418 -550767430 -714181020 -1793210475 -649098112
            -945904468 -1132153849 -2130653728 -781720111</internalNodes>
          <leafValues>
            -1.0019017010927200e-001 2.0235463976860046e-001</leafValues></_>
        <_>
          <internalNodes>
            0 -1 977 -139726794 1406874936 2147272511 956295153
            -847937904 -21507490 -553993534 -122428702</internalNodes>
          <leafValues>
            -1.0745235532522202e-001 1.8329727649688721e-001</leafValues></_>
        <_>
          <internalNodes>
            0 -1 743 -990922672 1605270433 1584288733 -170942078
            -1555176560 -307052026 -109217551 -392726733</internalNodes>
          <leafValues>
            -1.1717106401920319e-001 1.6483819484710693e-001</leafValues></_>
        <_>
          <internalNodes>
            0 -1 479 -1775589198 696293010 -2034753638 -1548379178
            1076151285 1632663602 156046776 1844819694</internalNodes>
          <leafValues>
            -1.7296439409255981e-001 1.1299892514944077e-001</leafValues></_></weakClassifiers></_>
    <!-- stage 3 -->
    <_>
      <maxWeakCount>85</maxWeakCount>
      <stageThreshold>-1.7299383878707886e+000</stageThreshold>
      <weakClassifiers>
        <_>
          <internalNodes>
            0 -1 285 2013265919 2147482623 2147205119 2147482623
            2147482623 1054817279 2147482623 2147483647</internalNodes>
          <leafValues>
            -4.3123400211334229e-001 2.0337900519371033e-001</leafValues></_>
        <_>
          <internalNodes>
            0 -1 136 -170394626 -73436449 2046161151 -134218753
            -69207045 -4337926 -2097153 2013260799</internalNodes>
          <leafValues>
            -1.8652850389480591e-001 2.6840865612030029e-001</leafValues></_>
        <_>
          <internalNodes>
            0 -1 960 269488629 532493428 433471359 535627133 953953274
            -1073928193 789383610 -1073795397</internalNodes>
          <leafValues>
            -1.8259471654891968e-001 2.5002369284629822e-001</leafValues></_>
        <_>
          <internalNodes>
            0 -1 1406 2147352575 -2097153 -134217729 -131073 -16778241
            -272633889 -257 -131073</internalNodes>
          <leafValues>
            -7.5402423739433289e-002 4.8750698566436768e-001</leafValues></_>
        <_>
          <internalNodes>
            0 -1 580 -1 1069432664 800537597 -1073922405 1072380603
            1072331757 2147426297 -1281</internalNodes>
          <leafValues>
            -1.0933472961187363e-001 3.2211354374885559e-001</leafValues></_>
        <_>
          <internalNodes>
            0 -1 410 -1065881532 -35855389 14611061 -40371521 -78257415
            -1677395872 -352846865 -195559729</internalNodes>
          <leafValues>
            -1.6813175380229950e-001 1.8083326518535614e-001</leafValues></_>
        <_>
          <internalNodes>
            0 -1 890 -272699884 -747114505 -34617353 -537141313
            -302075906 -355224373 -321147905 -2145327865</internalNodes>
          <leafValues>
            -1.1684240400791168e-001 2.3393559455871582e-001</leafValues></_>
        <_>
          <internalNodes>
            0 -1 1023 -518 536641491 2063511280 1073405436 153945272
            517756421 413665512 -1</internalNodes>
          <leafValues>
            -1.7843052744865417e-001 1.6266484558582306e-001</leafValues></_>
        <_>
          <internalNodes>
            0 -1 1341 69206225 650910866 735319039 45495133 -1074254849
            -1913016648 -1662504961 179838888</internalNodes>
          <leafValues>
            -2.5146126747131348e-001 1.2596145272254944e-001</leafValues></_>
        <_>
          <internalNodes>
            0 -1 570 -407901302 -2119504082 -1069641086 -234883046
            1147138822 16953615 2011616472 -478674961</internalNodes>
          <leafValues>
            -1.5010687708854675e-001 1.6618688404560089e-001</leafValues></_>
        <_>
          <internalNodes>
            0 -1 122 1560640761 2076129496 483742687 -6440193
            -1350282305 -684709 1424372159 2102221688</internalNodes>
          <leafValues>
            -1.6001845896244049e-001 1.5976914763450623e-001</leafValues></_>
        <_>
          <internalNodes>
            0 -1 191 1399437050 452721080 678572602 535901947 1911611636
            849350784 1365851387 1946138495</internalNodes>
          <leafValues>
            -1.8653626739978790e-001 1.3789561390876770e-001</leafValues></_>
        <_>
          <internalNodes>
            0 -1 593 -285218266 -2117910 -740414657 2145889194 553633215
            -68165735 1438602539 1625777943</internalNodes>
          <leafValues>
            -1.6244199872016907e-001 1.4475473761558533e-001</leafValues></_>
        <_>
          <internalNodes>
            0 -1 1169 -555754761 1397704471 -1461389676 -1341098396
            -673295348 -29937440 -262875966 -529465530</internalNodes>
          <leafValues>
            -1.5122799575328827e-001 1.5248468518257141e-001</leafValues></_>
        <_>
          <internalNodes>
            0 -1 1259 -142944519 1039961084 -1447337987 1001654716
            302253306 1071545054 314318846 -1342293506</internalNodes>
          <leafValues>
            -1.3237264752388000e-001 1.6990430653095245e-001</leafValues></_>
        <_>
          <internalNodes>
            0 -1 2 458340247 2006171643 -1346523926 -5400082 -51003973
            -1090708241 1866153727 2147350399</internalNodes>
          <leafValues>
            -9.6602633595466614e-002 2.1694163978099823e-001</leafValues></_>
        <_>
          <internalNodes>
            0 -1 557 -746327558 -878474240 -161788656 -104335360
            -2130722594 -1908484480 2001486496 -1069232032</internalNodes>
          <leafValues>
            -1.5586940944194794e-001 1.3756552338600159e-001</leafValues></_>
        <_>
          <internalNodes>
            0 -1 907 -556546992 -1324237177 1246156127 -175770137
            1074233539 -201899924 1180528287 -940050433</internalNodes>
          <leafValues>
            -1.1672127991914749e-001 1.8435136973857880e-001</leafValues></_>
        <_>
          <internalNodes>
            0 -1 1016 -917510353 1127173951 1544691734 1631711191
            1887313932 74845977 -252885794 -134217985</internalNodes>
          <leafValues>
            -1.1339212208986282e-001 1.8662348389625549e-001</leafValues></_>
        <_>
          <internalNodes>
            0 -1 970 -892937136 -654602605 -10126757 -1183584525
            -62202404 -50336445 2086009038 -1202628942</internalNodes>
          <leafValues>
            -1.0940479487180710e-001 1.7921626567840576e-001</leafValues></_>
        <_>
          <internalNodes>
            0 -1 45 -486542473 -1203050707 -1963941987 -2013222382
            1224164988 1071085393 -997512675 -1023019277</internalNodes>
          <leafValues>
            -1.3461089134216309e-001 1.4947548508644104e-001</leafValues></_>
        <_>
          <internalNodes>
            0 -1 1392 456169689 -1711512641 1596493179 1573858303
            -1142622534 -268542450 -8477697 1066441903</internalNodes>
          <leafValues>
            -1.1929152905941010e-001 1.6597472131252289e-001</leafValues></_>
        <_>
          <internalNodes>
            0 -1 554 -611132712 -816934944 -1192068143 -707965200
            -607127670 -1696693004 2073391252 -928919040</internalNodes>
          <leafValues>
            -1.2369492650032043e-001 1.5970300137996674e-001</leafValues></_>
        <_>
          <internalNodes>
            0 -1 725 268963984 468717792 1248968049 931925812 1065106616
            -283165164 622335626 -1925573512</internalNodes>
          <leafValues>
            -1.8298991024494171e-001 1.0402555018663406e-001</leafValues></_>
        <_>
          <internalNodes>
            0 -1 24 537120896 831858467 -1905031567 -571343567
            1078449146 -814349991 -931870279 -458762489</internalNodes>
          <leafValues>
            -1.4096640050411224e-001 1.3569574058055878e-001</leafValues></_>
        <_>
          <internalNodes>
            0 -1 875 90702143 1541966617 2068395343 1661935337 790139631
            805116007 130144043 1339717742</internalNodes>
          <leafValues>
            -1.7241506278514862e-001 1.1115900427103043e-001</leafValues></_>
        <_>
          <internalNodes>
            0 -1 938 1627320030 293524094 1253106356 29681902 1110410756
            543783570 1488136328 16773535</internalNodes>
          <leafValues>
            -1.8914289772510529e-001 1.0388879477977753e-001</leafValues></_>
        <_>
          <internalNodes>
            0 -1 515 -817378394 1212914 1625556104 -1752254848 670764416
            6298727 2002114815 -140509953</internalNodes>
          <leafValues>
            -1.3586039841175079e-001 1.4191535115242004e-001</leafValues></_>
        <_>
          <internalNodes>
            0 -1 402 1880592050 -1775270977 -436540483 -1095979114
            -605216107 -2773205 2059230879 1359323851</internalNodes>
          <leafValues>
            -1.5089546144008636e-001 1.2526948750019073e-001</leafValues></_>
        <_>
          <internalNodes>
            0 -1 426 -407109646 -206409812 -790435328 1879762528
            391097967 -640155783 74966997 -187313449</internalNodes>
          <leafValues>
            -1.5480141341686249e-001 1.2099345028400421e-001</leafValues></_>
        <_>
          <internalNodes>
            0 -1 123 1007161685 -2540099 901018495 -1141656251 877399572
            -25342631 1783527284 2142789152</internalNodes>
          <leafValues>
            -1.9573408365249634e-001 9.6776694059371948e-002</leafValues></_>
        <_>
          <internalNodes>
            0 -1 551 -900801296 -641291566 -1406635787 -642453808
            73308152 -1141519887 1097188808 -938503744</internalNodes>
          <leafValues>
            -1.1478590220212936e-001 1.6639389097690582e-001</leafValues></_>
        <_>
          <internalNodes>
            0 -1 814 -319886828 578187186 -1955354322 619340296
            486475572 -1161089770 905769476 -1069030601</internalNodes>
          <leafValues>
            -2.0804946124553680e-001 9.0772882103919983e-002</leafValues></_>
        <_>
          <internalNodes>
            0 -1 774 -30022 2142211130 741876508 2079728538 534756248
            534114216 120034958 -370695377</internalNodes>
          <leafValues>
            -1.1086206883192062e-001 1.7118996381759644e-001</leafValues></_>
        <_>
          <internalNodes>
            0 -1 737 -867915760 1513331856 -1618220098 -69343598
            1537694389 -1125723916 1656297438 -1473167194</internalNodes>
          <leafValues>
            -1.3172274827957153e-001 1.3792712986469269e-001</leafValues></_>
        <_>
          <internalNodes>
            0 -1 83 305664124 -42437572 -117944200 498664188 940159422
            -1417029743 490061709 490220987</internalNodes>
          <leafValues>
            -1.6024659574031830e-001 1.1326901614665985e-001</leafValues></_>
        <_>
          <internalNodes>
            0 -1 260 -654574090 897000576 647921616 463870898 106169548
            993007653 907024732 1853586422</internalNodes>
          <leafValues>
            -1.5610374510288239e-001 1.2036138772964478e-001</leafValues></_>
        <_>
          <internalNodes>
            0 -1 852 -495991282 575024845 -1578764718 577629820
            1942894195 1346807775 -167942316 -522001068</internalNodes>
          <leafValues>
            -1.8642301857471466e-001 9.6671320497989655e-002</leafValues></_>
        <_>
          <internalNodes>
            0 -1 878 1145048070 286778383 -388601794 425950258 146424063
            -565217041 -1373774610 -1327074178</internalNodes>
          <leafValues>
            -1.7040257155895233e-001 1.0707623511552811e-001</leafValues></_>
        <_>
          <internalNodes>
            0 -1 708 -153107650 268567068 1747887864 869858352
            1808794248 -1118391459 217713856 678136931</internalNodes>
          <leafValues>
            -1.6734710335731506e-001 1.0499391704797745e-001</leafValues></_>
        <_>
          <internalNodes>
            0 -1 1416 251674200 940094544 1610415829 331882215 441498571
            805023990 1038331647 168345390</internalNodes>
          <leafValues>
            -2.0094111561775208e-001 8.8363312184810638e-002</leafValues></_>
        <_>
          <internalNodes>
            0 -1 324 -349460045 -1406239840 2110727672 -841560636
            1147090927 158689602 -820546623 -185084429</internalNodes>
          <leafValues>
            -1.3298760354518890e-001 1.3748310506343842e-001</leafValues></_>
        <_>
          <internalNodes>
            0 -1 1312 -295896067 402034164 -1515307873 1059890542
            -1668693572 1004428863 1065234365 -1359308070</internalNodes>
          <leafValues>
            -1.2297124415636063e-001 1.5062542259693146e-001</leafValues></_>
        <_>
          <internalNodes>
            0 -1 256 1972339990 2081938491 2074830712 -1491361150
            394134552 1767702625 1306271098 2131040111</internalNodes>
          <leafValues>
            -1.7153519392013550e-001 1.0756952315568924e-001</leafValues></_>
        <_>
          <internalNodes>
            0 -1 1219 1451227895 2002722687 -2107858224 1886875306
            -1636315642 2026837591 -136908094 -155721737</internalNodes>
          <leafValues>
            -1.1418592184782028e-001 1.5610380470752716e-001</leafValues></_>
        <_>
          <internalNodes>
            0 -1 884 1652555528 893124331 795491165 -1950622338
            -1108479606 -321925249 -40043574 544469571</internalNodes>
          <leafValues>
            -1.4455769956111908e-001 1.2173870950937271e-001</leafValues></_>
        <_>
          <internalNodes>
            0 -1 1159 -1875246032 -552072656 -1846117251 -1726196446
            -1388311400 -99190307 -2072489732 -1973359840</internalNodes>
          <leafValues>
            -1.8869540095329285e-001 9.3200072646141052e-002</leafValues></_>
        <_>
          <internalNodes>
            0 -1 470 -177747490 115043809 -1365256530 -320934170
            1844671349 324140021 -46564576 -624123068</internalNodes>
          <leafValues>
            -1.6752356290817261e-001 1.0405543446540833e-001</leafValues></_>
        <_>
          <internalNodes>
            0 -1 644 -303042938 1810879479 1325398722 -204609793
            1135854981 1442267135 1652355315 -403376125</internalNodes>
          <leafValues>
            -1.2838487327098846e-001 1.3504485785961151e-001</leafValues></_>
        <_>
          <internalNodes>
            0 -1 1380 2132079101 -235168300 -2125475969 -9568279
            -1366182454 -1146095882 -18163813 -2235157</internalNodes>
          <leafValues>
            -6.0206919908523560e-002 2.9568606615066528e-001</leafValues></_>
        <_>
          <internalNodes>
            0 -1 276 -1018188879 195533363 222078992 -1381517534
            84006906 68496819 -1553644520 2139300611</internalNodes>
          <leafValues>
            -1.4230130612850189e-001 1.2518472969532013e-001</leafValues></_>
        <_>
          <internalNodes>
            0 -1 1194 107485208 416816760 868017651 691806109 513287145
            1055290495 919080138 -1079366401</internalNodes>
          <leafValues>
            -1.8667156994342804e-001 9.3866750597953796e-002</leafValues></_>
        <_>
          <internalNodes>
            0 -1 1189 -121833228 521318844 183522299 424955434 381779848
            971014126 -1342414948 -1162085550</internalNodes>
          <leafValues>
            -1.2596303224563599e-001 1.4113284647464752e-001</leafValues></_>
        <_>
          <internalNodes>
            0 -1 1298 -829686289 159224520 1500613707 1229848363
            794548667 -618398056 1899688762 1879030959</internalNodes>
          <leafValues>
            -1.0373342037200928e-001 1.7322349548339844e-001</leafValues></_>
        <_>
          <internalNodes>
            0 -1 68 -797722820 -720590222 277708318 1468664099
            1484186290 1551567190 1647605160 2136199735</internalNodes>
          <leafValues>
            -1.4312446117401123e-001 1.2494233995676041e-001</leafValues></_>
        <_>
          <internalNodes>
            0 -1 472 1127145506 1932699511 -142790913 -317723072
            -1029192970 -129535006 -1015082823 -454704602</internalNodes>
          <leafValues>
            -1.3542729616165161e-001 1.3223476707935333e-001</leafValues></_>
        <_>
          <internalNodes>
            0 -1 760 -1307590000 -551417640 183024721 -44779920
            209351304 -830527648 124812512 -1895770944</internalNodes>
          <leafValues>
            -1.3575159013271332e-001 1.2967108190059662e-001</leafValues></_>
        <_>
          <internalNodes>
            0 -1 1052 -118244329 280035167 1479779312 -1333345246
            1224090200 1492494089 1844432111 -1435255969</internalNodes>
          <leafValues>
            -1.2197895348072052e-001 1.4250518381595612e-001</leafValues></_>
        <_>
          <internalNodes>
            0 -1 1105 1087301200 1367520603 -2068179693 1696725746
            217778362 -1170873262 -126171218 -447495401</internalNodes>
          <leafValues>
            -1.3215321302413940e-001 1.3227233290672302e-001</leafValues></_>
        <_>
          <internalNodes>
            0 -1 333 1454305270 941286232 774143899 1068438024
            1551498234 -53731588 -1414786920 765097930</internalNodes>
          <leafValues>
            -1.3910481333732605e-001 1.2332050502300262e-001</leafValues></_>
        <_>
          <internalNodes>
            0 -1 220 -283128314 -1529819722 -278337632 -2006781064
            1979675716 1179936465 2128897588 -218890441</internalNodes>
          <leafValues>
            -2.3832574486732483e-001 7.5130030512809753e-002</leafValues></_>
        <_>
          <internalNodes>
            0 -1 67 1431951357 -740693772 -1628524549 -34080131
            -1143294017 -21467141 -136004101 -1345473637</internalNodes>
          <leafValues>
            -6.3055910170078278e-002 2.8273749351501465e-001</leafValues></_>
        <_>
          <internalNodes>
            0 -1 516 2123830840 494607762 536871944 1972830128
            2013891318 794601119 -126229286 1583341964</internalNodes>
          <leafValues>
            -1.6521778702735901e-001 1.0869677364826202e-001</leafValues></_>
        <_>
          <internalNodes>
            0 -1 807 -939203087 -580461518 -819299049 2112616322
            768124638 -391470462 -550453334 -91709307</internalNodes>
          <leafValues>
            -1.0167462378740311e-001 1.7469860613346100e-001</leafValues></_>
        <_>
          <internalNodes>
            0 -1 428 -3215416 -500257302 -969565184 8540066 988723092
            108123390 1676657984 1086778403</internalNodes>
          <leafValues>
            -2.4215479195117950e-001 7.3588892817497253e-002</leafValues></_>
        <_>
          <internalNodes>
            0 -1 1062 -233345484 725282736 81812084 -1237778894
            1769431244 -353579212 -182172656 -187244026</internalNodes>
          <leafValues>
            -1.6403210163116455e-001 1.0374052822589874e-001</leafValues></_>
        <_>
          <internalNodes>
            0 -1 267 -860945804 536743549 -1285879299 929235465
            1654287848 1064319785 1220025000 -1083213037</internalNodes>
          <leafValues>
            -1.1595925688743591e-001 1.4943082630634308e-001</leafValues></_>
        <_>
          <internalNodes>
            0 -1 382 -1009783264 549772143 1258177958 -1724730782
            1196320536 37441027 1570149192 1370674807</internalNodes>
          <leafValues>
            -2.1033252775669098e-001 8.4274806082248688e-002</leafValues></_>
        <_>
          <internalNodes>
            0 -1 1421 431322071 1408864863 1655805427 131665898
            199390713 -1402745869 142943599 1307959534</internalNodes>
          <leafValues>
            -1.4467488229274750e-001 1.1741950362920761e-001</leafValues></_>
        <_>
          <internalNodes>
            0 -1 1030 -50663012 469565232 -1733357647 -1179300592
            620443594 786196846 1073023740 -67485249</internalNodes>
          <leafValues>
            -1.1477864533662796e-001 1.5204082429409027e-001</leafValues></_>
        <_>
          <internalNodes>
            0 -1 34 -2142861260 297318578 1963104337 -1249786270
            366363130 -2120831537 -1000333924 -849088473</internalNodes>
          <leafValues>
            -1.3835208117961884e-001 1.2675470113754272e-001</leafValues></_>
        <_>
          <internalNodes>
            0 -1 1202 -27622564 467952346 914292582 -1188127150
            -867951204 -1090690445 -1167814680 -395127490</internalNodes>
          <leafValues>
            -1.3514541089534760e-001 1.2858250737190247e-001</leafValues></_>
        <_>
          <internalNodes>
            0 -1 523 -1625287180 236776221 535355285 496252232 334894796
            -1139390723 1238249917 -4714720</internalNodes>
          <leafValues>
            -1.7362679541110992e-001 9.8216682672500610e-002</leafValues></_>
        <_>
          <internalNodes>
            0 -1 309 195299884 -1712887252 1288432119 -1381288158
            1490756775 1584390132 -110172440 1699979526</internalNodes>
          <leafValues>
            -1.7473042011260986e-001 9.6470139920711517e-002</leafValues></_>
        <_>
          <internalNodes>
            0 -1 1274 -20789542 -20422809 -2106919376 1347037816
            -899247928 -305569727 -178984198 -491592314</internalNodes>
          <leafValues>
            -1.0757302492856979e-001 1.6270077228546143e-001</leafValues></_>
        <_>
          <internalNodes>
            0 -1 606 1490006768 995655921 61354313 686862882 228330940
            -388464908 1832142504 -928551741</internalNodes>
          <leafValues>
            -1.3971610367298126e-001 1.2017999589443207e-001</leafValues></_>
        <_>
          <internalNodes>
            0 -1 12 -220157464 887157789 402220927 1340054294 1170746368
            -1332956736 778904368 1063600171</internalNodes>
          <leafValues>
            -1.8950727581977844e-001 9.1275043785572052e-002</leafValues></_>
        <_>
          <internalNodes>
            0 -1 436 1657511994 710444730 -1326944811 250090172
            1524106248 1328462523 720316473 967312548</internalNodes>
          <leafValues>
            -2.3102068901062012e-001 7.5081691145896912e-002</leafValues></_>
        <_>
          <internalNodes>
            0 -1 931 1248758432 1107183988 -516150435 1902809747
            1985321384 1067398534 577706014 1237318363</internalNodes>
          <leafValues>
            -1.5042524039745331e-001 1.1520058661699295e-001</leafValues></_>
        <_>
          <internalNodes>
            0 -1 897 -53019634 2033364796 -302484033 3513577 -1158701174
            -1107461276 -236081170 -386533817</internalNodes>
          <leafValues>
            -1.1122477054595947e-001 1.5139029920101166e-001</leafValues></_>
        <_>
          <internalNodes>
            0 -1 231 1577604549 -47877446 1719155013 1264669520
            992781469 2145196398 1801811832 2068114245</internalNodes>
          <leafValues>
            -1.6190807521343231e-001 1.0513729602098465e-001</leafValues></_>
        <_>
          <internalNodes>
            0 -1 815 -584417004 292747595 -575157360 1091364356
            1970365888 82735091 -538969912 1640230216</internalNodes>
          <leafValues>
            -1.6460083425045013e-001 1.0406479984521866e-001</leafValues></_>
        <_>
          <internalNodes>
            0 -1 420 -327155785 1123316412 1488987588 -727714782
            -673783728 -930102284 -396887348 -69343598</internalNodes>
          <leafValues>
            -1.0080250352621078e-001 1.6893620789051056e-001</leafValues></_>
        <_>
          <internalNodes>
            0 -1 1179 -477696158 577014983 -226521366 541911672
            292904229 251067877 -256913018 -1600600988</internalNodes>
          <leafValues>
            -1.9391052424907684e-001 8.7474673986434937e-002</leafValues></_>
        <_>
          <internalNodes>
            0 -1 594 169767548 -2018578978 2044151350 -1075355806
            -379107900 -355491977 -1120322 1690728309</internalNodes>
          <leafValues>
            -1.5779188275337219e-001 1.0536341369152069e-001</leafValues></_></weakClassifiers></_>
    <!-- stage 4 -->
    <_>
      <maxWeakCount>96</maxWeakCount>
      <stageThreshold>-1.6502184867858887e+000</stageThreshold>
      <weakClassifiers>
        <_>
          <internalNodes>
            0 -1 171 2013265919 2013265919 -4203521 -1025 2147483583
            402517998 -1025 -1</internalNodes>
          <leafValues>
            -3.5108184814453125e-001 2.8083831071853638e-001</leafValues></_>
        <_>
          <internalNodes>
            0 -1 135 -235408406 -201460741 -235277825 -204211201
            -245370113 -2113813 -136317953 -168430613</internalNodes>
          <leafValues>
            -1.7188441753387451e-001 2.3749524354934692e-001</leafValues></_>
        <_>
          <internalNodes>
            0 -1 726 420483313 1071057521 726679549 1063102773 772815353
            -1140900171 1059201023 -1076941877</internalNodes>
          <leafValues>
            -1.6785889863967896e-001 2.3196347057819366e-001</leafValues></_>
        <_>
          <internalNodes>
            0 -1 64 2145247229 -8398849 -8396801 -33 -67371009 -67109393
            -2359297 -131073</internalNodes>
          <leafValues>
            -9.9944330751895905e-002 4.7119244933128357e-001</leafValues></_>
        <_>
          <internalNodes>
            0 -1 1141 -1 1029668350 -1748624449 1071431420 150809304
            1069498159 -1075441928 -513</internalNodes>
          <leafValues>
            -8.3996407687664032e-002 2.7991443872451782e-001</leafValues></_>
        <_>
          <internalNodes>
            0 -1 1398 2069426687 -536873473 -538968065 -133411 -197633
            -2113539 -1074941953 -135685</internalNodes>
          <leafValues>
            -7.0217989385128021e-002 4.0156960487365723e-001</leafValues></_>
        <_>
          <internalNodes>
            0 -1 577 -269488321 -2110849238 -465640960 -18356437
            394262391 52952935 1474000656 -671098881</internalNodes>
          <leafValues>
            -1.2295909225940704e-001 1.9648835062980652e-001</leafValues></_>
        <_>
          <internalNodes>
            0 -1 590 -437850364 -2709786 -207671457 -537138654
            1405349871 -3979361 1827624347 1078412039</internalNodes>
          <leafValues>
            -1.8012100458145142e-001 1.3590496778488159e-001</leafValues></_>
        <_>
          <internalNodes>
            0 -1 615 -71573581 -1966480464 776261237 -574595424
            -99957352 -823995658 -1059663388 -1006317488</internalNodes>
          <leafValues>
            -1.4275179803371429e-001 1.5437203645706177e-001</leafValues></_>
        <_>
          <internalNodes>
            0 -1 673 -103222160 -249499916 225245977 420277340
            1364186601 -123624844 838151359 1004532703</internalNodes>
          <leafValues>
            -1.4191792905330658e-001 1.6391521692276001e-001</leafValues></_>
        <_>
          <internalNodes>
            0 -1 171 -1715264806 -1931468798 276039376 297639136
            -2040527264 -402255855 1448135398 1912601323</internalNodes>
          <leafValues>
            -1.8361391127109528e-001 1.1210618913173676e-001</leafValues></_>
        <_>
          <internalNodes>
            0 -1 455 -602230056 1564091762 3147280 296751024 2001212664
            1071648296 347875768 2080371963</internalNodes>
          <leafValues>
            -1.6428296267986298e-001 1.3719263672828674e-001</leafValues></_>
        <_>
          <internalNodes>
            0 -1 1388 2138894847 -541082657 1608359903 -536879621
            -151388161 -1080111106 -1073758209 -132357</internalNodes>
          <leafValues>
            -7.1406438946723938e-002 3.6357817053794861e-001</leafValues></_>
        <_>
          <internalNodes>
            0 -1 974 -365255856 -68281308 -2009531428 -641124860
            -322133092 -24075032 -1093357890 -1207958448</internalNodes>
          <leafValues>
            -1.5093199908733368e-001 1.3493849337100983e-001</leafValues></_>
        <_>
          <internalNodes>
            0 -1 214 -456130704 11453058 577304240 -2134378266
            -184877926 -1534339373 -787127264 -252184653</internalNodes>
          <leafValues>
            -1.6938769817352295e-001 1.1923548579216003e-001</leafValues></_>
        <_>
          <internalNodes>
            0 -1 1262 209853053 11933108 -1511696385 748164396 788462511
            -1966112930 -2034303505 -1432404549</internalNodes>
          <leafValues>
            -1.5631657838821411e-001 1.2401518970727921e-001</leafValues></_>
        <_>
          <internalNodes>
            0 -1 1012 -405813698 24078878 849354986 1090702015
            1526694089 1299006222 -470040129 1400633803</internalNodes>
          <leafValues>
            -1.3566440343856812e-001 1.4602671563625336e-001</leafValues></_>
        <_>
          <internalNodes>
            0 -1 145 544112640 -666185112 871703187 867906623 463338112
            -398134684 561364475 1916787698</internalNodes>
          <leafValues>
            -2.1017251908779144e-001 9.1054931282997131e-002</leafValues></_>
        <_>
          <internalNodes>
            0 -1 778 -806361298 1676029787 -1107293560 -1308622872
            1946139436 69555503 -167922981 -173019410</internalNodes>
          <leafValues>
            -1.3195613026618958e-001 1.3778157532215118e-001</leafValues></_>
        <_>
          <internalNodes>
            0 -1 92 1903171833 -638248580 417167867 2147090411 -8610146
            -1074000281 1972434683 2068330697</internalNodes>
          <leafValues>
            -1.2841725349426270e-001 1.4322274923324585e-001</leafValues></_>
        <_>
          <internalNodes>
            0 -1 1063 -41943593 1931471786 -529869072 -261883657
            1830811208 -1089114295 -730406682 -260898825</internalNodes>
          <leafValues>
            -1.1925746500492096e-001 1.5440240502357483e-001</leafValues></_>
        <_>
          <internalNodes>
            0 -1 222 -210239632 1526758486 1320490128 901625484
            1181167862 360664881 1701916968 -8401</internalNodes>
          <leafValues>
            -1.2794283032417297e-001 1.4023734629154205e-001</leafValues></_>
        <_>
          <internalNodes>
            0 -1 804 -957947128 1534256427 -1343784035 758640639
            1423937192 -16845018 -65024786 552072023</internalNodes>
          <leafValues>
            -1.5650565922260284e-001 1.1043710261583328e-001</leafValues></_>
        <_>
          <internalNodes>
            0 -1 1337 580092 -1859995778 2078244341 862214908
            -1296138244 -1711604849 -270682638 -1998049604</internalNodes>
          <leafValues>
            -1.3995730876922607e-001 1.2517784535884857e-001</leafValues></_>
        <_>
          <internalNodes>
            0 -1 1090 -46861827 -1073973764 959741237 1038615773
            157826237 798039513 715005611 -1140869717</internalNodes>
          <leafValues>
            -1.0072967410087585e-001 1.7197743058204651e-001</leafValues></_>
        <_>
          <internalNodes>
            0 -1 1361 1875767087 711569391 -90365204 -1032066050
            1400239559 568192483 -537925032 1624636970</internalNodes>
          <leafValues>
            -1.1009266227483749e-001 1.5091720223426819e-001</leafValues></_>
        <_>
          <internalNodes>
            0 -1 1209 -69283688 1604108468 -1404150689 1358986736
            -1665234276 -568563864 -60490070 -664604462</internalNodes>
          <leafValues>
            -1.0056052356958389e-001 1.7165008187294006e-001</leafValues></_>
        <_>
          <internalNodes>
            0 -1 268 184556913 2011764729 -546217987 -1244448153
            -1083561116 -167105 330316125 -808758415</internalNodes>
          <leafValues>
            -1.4613550901412964e-001 1.1734499782323837e-001</leafValues></_>
        <_>
          <internalNodes>
            0 -1 166 -136591446 -215311310 1408090752 564196872
            -230985672 1878569456 564454986 1349743642</internalNodes>
          <leafValues>
            -1.9191938638687134e-001 8.7206102907657623e-002</leafValues></_>
        <_>
          <internalNodes>
            0 -1 746 -299442144 -69191136 -1254433500 -1855379004
            1794803620 -897777676 1173641104 -935005120</internalNodes>
          <leafValues>
            -1.5245021879673004e-001 1.0457770526409149e-001</leafValues></_>
        <_>
          <internalNodes>
            0 -1 600 -739532158 101247408 260876850 556296228 1333021860
            1903491752 -319658742 1710747423</internalNodes>
          <leafValues>
            -1.8402026593685150e-001 9.1906860470771790e-002</leafValues></_>
        <_>
          <internalNodes>
            0 -1 867 -31802316 275264880 -1107782096 502347190 576498872
            687081140 1626802864 167760783</internalNodes>
          <leafValues>
            -1.6758431494235992e-001 9.4741716980934143e-002</leafValues></_>
        <_>
          <internalNodes>
            0 -1 1250 -623588641 1543218910 -492944368 1647108284
            1555308100 -277096836 -495574976 -185078137</internalNodes>
          <leafValues>
            -1.3663701713085175e-001 1.1714580655097961e-001</leafValues></_>
        <_>
          <internalNodes>
            0 -1 574 -420493430 -995373525 716089872 -142803218
            -181541602 91353930 -447384606 -229641306</internalNodes>
          <leafValues>
            -1.3547135889530182e-001 1.1954148858785629e-001</leafValues></_>
        <_>
          <internalNodes>
            0 -1 127 1533399861 2107630721 1899738607 2111151919
            1864145403 -1078109321 1059016043 2069214011</internalNodes>
          <leafValues>
            -1.2007331848144531e-001 1.3429884612560272e-001</leafValues></_>
        <_>
          <internalNodes>
            0 -1 989 244349168 965239424 -575258755 -1076188556
            2073954236 -1111732964 1025290458 -1973402528</internalNodes>
          <leafValues>
            -1.9014720618724823e-001 8.4347888827323914e-002</leafValues></_>
        <_>
          <internalNodes>
            0 -1 1117 -489240685 587213896 1877621021 -619454646
            1308237292 1503644582 -730480571 -716849058</internalNodes>
          <leafValues>
            -1.1122092604637146e-001 1.4714665710926056e-001</leafValues></_>
        <_>
          <internalNodes>
            0 -1 666 436351088 943865340 1912297405 286790572 979907976
            -1997009491 908080024 -1688586232</internalNodes>
          <leafValues>
            -1.6740846633911133e-001 9.5650061964988708e-002</leafValues></_>
        <_>
          <internalNodes>
            0 -1 409 -1070618080 170061454 -336713204 -101790838
            1097281936 68573491 1156539456 1203233590</internalNodes>
          <leafValues>
            -2.1886430680751801e-001 7.5083546340465546e-002</leafValues></_>
        <_>
          <internalNodes>
            0 -1 507 -877924710 2067309302 -581734152 1609928198
            266911434 564800302 107278299 -872417585</internalNodes>
          <leafValues>
            -8.9211516082286835e-002 1.8166422843933105e-001</leafValues></_>
        <_>
          <internalNodes>
            0 -1 26 2138416 535917874 525479702 -72506829 426100207
            2066715047 1141366591 -2065176827</internalNodes>
          <leafValues>
            -1.5609779953956604e-001 1.0469172149896622e-001</leafValues></_>
        <_>
          <internalNodes>
            0 -1 396 -340329868 430362300 923430613 830321784 2076785134
            748173076 1327002940 -14979232</internalNodes>
          <leafValues>
            -1.2880603969097137e-001 1.2308602035045624e-001</leafValues></_>
        <_>
          <internalNodes>
            0 -1 619 -426775845 1912902064 2077800400 1890357698
            -705700659 -357630764 -975714154 -992610656</internalNodes>
          <leafValues>
            -1.2709031999111176e-001 1.2331394106149673e-001</leafValues></_>
        <_>
          <internalNodes>
            0 -1 916 -564206302 1430086386 -1037374972 27370183
            1113522583 -52045979 -428494902 -235405734</internalNodes>
          <leafValues>
            -1.1670722812414169e-001 1.3463649153709412e-001</leafValues></_>
        <_>
          <internalNodes>
            0 -1 1419 1096349951 986516755 796900061 1294785110
            695249663 -1362975272 517332987 1340904141</internalNodes>
          <leafValues>
            -1.3156485557556152e-001 1.2289923429489136e-001</leafValues></_>
        <_>
          <internalNodes>
            0 -1 692 -1997876208 273189476 -1406763880 -787220432
            -1664785492 -1418270991 -57788759 -1071418816</internalNodes>
          <leafValues>
            -1.3275057077407837e-001 1.1982188373804092e-001</leafValues></_>
        <_>
          <internalNodes>
            0 -1 1294 1052907632 1033900152 251668925 465607933
            1070476204 1038790358 918688702 -1462235180</internalNodes>
          <leafValues>
            -1.9658899307250977e-001 8.0448359251022339e-002</leafValues></_>
        <_>
          <internalNodes>
            0 -1 1139 -17830090 1465925554 2055832251 934032112
            904760920 419913577 -1428952645 -67114049</internalNodes>
          <leafValues>
            -9.5749408006668091e-002 1.6392426192760468e-001</leafValues></_>
        <_>
          <internalNodes>
            0 -1 1102 -523576240 -114410669 -2027551077 2132518052
            -313353590 -353956367 -85663830 -367909804</internalNodes>
          <leafValues>
            -1.0714861750602722e-001 1.4697235822677612e-001</leafValues></_>
        <_>
          <internalNodes>
            0 -1 793 -105456242 -258080801 -377550078 -1012123190
            2055137046 399625744 1046222910 1165993535</internalNodes>
          <leafValues>
            -1.2994965910911560e-001 1.2148939073085785e-001</leafValues></_>
        <_>
          <internalNodes>
            0 -1 1166 -656429122 319598879 1347721874 1612765802
            1556549120 2050225191 -218927452 -252183469</internalNodes>
          <leafValues>
            -1.5480133891105652e-001 9.7889609634876251e-002</leafValues></_>
        <_>
          <internalNodes>
            0 -1 1004 542770448 -1648597892 -537052677 -1182098024
            158421172 -134472260 970743292 136317984</internalNodes>
          <leafValues>
            -3.4182927012443542e-001 4.4311001896858215e-002</leafValues></_>
        <_>
          <internalNodes>
            0 -1 519 -682181734 501360087 -22153552 -1212184066
            349505264 211443183 1826881768 -553650753</internalNodes>
          <leafValues>
            -1.0807178169488907e-001 1.4414550364017487e-001</leafValues></_>
        <_>
          <internalNodes>
            0 -1 306 187870464 489874000 1171802672 800826762 1162699224
            177680309 610772890 85409824</internalNodes>
          <leafValues>
            -2.2040151059627533e-001 6.9043919444084167e-002</leafValues></_>
        <_>
          <internalNodes>
            0 -1 768 1086825130 1936892178 -1770914827 510831920
            81895656 -351934753 1333052088 26445451</internalNodes>
          <leafValues>
            -1.4644046127796173e-001 1.0462288558483124e-001</leafValues></_>
        <_>
          <internalNodes>
            0 -1 849 -219681273 705380154 1921839441 -1568702898
            2147395126 1131885948 -223382170 -1032658636</internalNodes>
          <leafValues>
            -1.4106838405132294e-001 1.0996386408805847e-001</leafValues></_>
        <_>
          <internalNodes>
            0 -1 1393 201851068 -120057889 -1086883237 2112628173
            334804935 -1440060164 -1101134849 194774732</internalNodes>
          <leafValues>
            -1.5345956385135651e-001 1.0007490217685699e-001</leafValues></_>
        <_>
          <internalNodes>
            0 -1 1239 72484866 1090590711 1776658706 354570135 145647754
            176973483 -1462833970 -456658958</internalNodes>
          <leafValues>
            -1.4677891135215759e-001 1.0746216028928757e-001</leafValues></_>
        <_>
          <internalNodes>
            0 -1 585 -526942186 472669559 193964216 -1735852262
            968783381 -573244201 2102874803 -2013149184</internalNodes>
          <leafValues>
            -1.6246552765369415e-001 9.4355925917625427e-002</leafValues></_>
        <_>
          <internalNodes>
            0 -1 82 2006971827 -219753405 -1544105706 -574313862
            1935668156 2137895922 1968829276 -14199181</internalNodes>
          <leafValues>
            -9.6707127988338470e-002 1.6062566637992859e-001</leafValues></_>
        <_>
          <internalNodes>
            0 -1 165 -989903050 -875420635 1731404318 -1566001630
            148320772 1533048464 -454809192 151500618</internalNodes>
          <leafValues>
            -1.6923296451568604e-001 9.1948769986629486e-002</leafValues></_>
        <_>
          <internalNodes>
            0 -1 889 -330908144 1555069435 1035930807 2073933299
            -1157890312 -50332911 -94119204 -1464123134</internalNodes>
          <leafValues>
            -1.0264094173908234e-001 1.5017612278461456e-001</leafValues></_>
        <_>
          <internalNodes>
            0 -1 609 -762579248 523565922 -1074722375 2130733745
            172184061 -25038868 -33566727 -321434249</internalNodes>
          <leafValues>
            -9.9108807742595673e-002 1.5366967022418976e-001</leafValues></_>
        <_>
          <internalNodes>
            0 -1 188 422581361 469175933 -355141889 1528782558 472806836
            -1106894001 276190359 994059312</internalNodes>
          <leafValues>
            -2.1882054209709167e-001 7.0067763328552246e-002</leafValues></_>
        <_>
          <internalNodes>
            0 -1 325 -521410906 202303362 236225232 -185718796 237490895
            1278526511 1173618785 -990386457</internalNodes>
          <leafValues>
            -1.6794157028198242e-001 9.2317394912242889e-002</leafValues></_>
        <_>
          <internalNodes>
            0 -1 340 -623969472 2103222254 1201340734 -1648959582
            1850842093 164444774 1679901564 1788605987</internalNodes>
          <leafValues>
            -1.4579765498638153e-001 1.0503505170345306e-001</leafValues></_>
        <_>
          <internalNodes>
            0 -1 1111 -22116166 -1197297992 1316869846 1461899956
            -1543871332 -1733678496 -1867733622 -635899276</internalNodes>
          <leafValues>
            -1.1286706477403641e-001 1.3914655148983002e-001</leafValues></_>
        <_>
          <internalNodes>
            0 -1 799 -1359000320 823392729 688294020 460439043
            2127798763 -1033897569 -75606614 1617611858</internalNodes>
          <leafValues>
            -1.5410752594470978e-001 1.0202546417713165e-001</leafValues></_>
        <_>
          <internalNodes>
            0 -1 843 1657726944 143042126 1249249118 834977500 799253380
            740426984 773987400 146799096</internalNodes>
          <leafValues>
            -1.9986589252948761e-001 7.6024569571018219e-002</leafValues></_>
        <_>
          <internalNodes>
            0 -1 561 -151004544 243428302 1175807008 -2036152640
            -1373098302 -1901285850 -900746240 1076282627</internalNodes>
          <leafValues>
            -2.2178815305233002e-001 6.8569675087928772e-002</leafValues></_>
        <_>
          <internalNodes>
            0 -1 812 -894522624 994884576 -83988500 -1330330508
            -880921848 -1091548758 1089835040 -791283853</internalNodes>
          <leafValues>
            -1.6165459156036377e-001 9.1524057090282440e-002</leafValues></_>
        <_>
          <internalNodes>
            0 -1 723 1017026032 987557304 252182815 905772601 -902256452
            950410687 144637984 2147215095</internalNodes>
          <leafValues>
            -1.4682164788246155e-001 1.0254351049661636e-001</leafValues></_>
        <_>
          <internalNodes>
            0 -1 9 481141904 389584656 -1019208468 2067787172 2011439068
            -269585249 -698926280 2108800802</internalNodes>
          <leafValues>
            -1.4384160935878754e-001 1.0443828254938126e-001</leafValues></_>
        <_>
          <internalNodes>
            0 -1 1103 -35159809 840072975 -1110496450 -1620540801
            427229673 -713227 1591823342 -1173128409</internalNodes>
          <leafValues>
            -9.1427244246006012e-002 1.6359528899192810e-001</leafValues></_>
        <_>
          <internalNodes>
            0 -1 998 -213134082 -112930196 533232789 1472495760
            1289413290 -837572656 1012462272 -804855660</internalNodes>
          <leafValues>
            -1.0349088162183762e-001 1.4356403052806854e-001</leafValues></_>
        <_>
          <internalNodes>
            0 -1 1357 1329979389 1475327615 87607119 769163871
            1234107055 -568460547 997503359 1828642463</internalNodes>
          <leafValues>
            -1.1407671123743057e-001 1.3413612544536591e-001</leafValues></_>
        <_>
          <internalNodes>
            0 -1 1193 1216755124 397949865 -1885503817 499124975
            743973784 -1431623688 -1138286088 -1362200190</internalNodes>
          <leafValues>
            -1.2257141619920731e-001 1.2765766680240631e-001</leafValues></_>
        <_>
          <internalNodes>
            0 -1 40 -500527584 1879100476 -464097223 -752818512
            539559074 -457750538 1983185930 2031608471</internalNodes>
          <leafValues>
            -1.4581722021102905e-001 1.0394486784934998e-001</leafValues></_>
        <_>
          <internalNodes>
            0 -1 663 -152118795 737688408 -1216588571 -1630137016
            1995190174 518926174 1065622494 -1141151713</internalNodes>
          <leafValues>
            -9.9658191204071045e-002 1.5279331803321838e-001</leafValues></_>
        <_>
          <internalNodes>
            0 -1 1000 -748695877 -851210604 1330926738 -1534923008
            2049330178 -1188670497 -305350143 -1070532832</internalNodes>
          <leafValues>
            -1.5109084546566010e-001 1.0095166414976120e-001</leafValues></_>
        <_>
          <internalNodes>
            0 -1 909 -22108432 472823322 1031622610 -1339811790
            -161936788 -331402825 1684346012 -525242176</internalNodes>
          <leafValues>
            -1.4389653503894806e-001 1.0345526784658432e-001</leafValues></_>
        <_>
          <internalNodes>
            0 -1 483 -901477100 -1779392880 681878289 -321809613
            1265147796 -670653736 -633321147 678684567</internalNodes>
          <leafValues>
            -1.6159890592098236e-001 9.4217754900455475e-002</leafValues></_>
        <_>
          <internalNodes>
            0 -1 1021 -612399984 1261890291 -1682773580 1868640014
            1304757744 156509887 -318140756 -270824169</internalNodes>
          <leafValues>
            -1.0809461027383804e-001 1.3917496800422668e-001</leafValues></_>
        <_>
          <internalNodes>
            0 -1 672 -132790987 7270815 -43274438 -1432191490 -772378283
            811720929 -1181023419 -2057656317</internalNodes>
          <leafValues>
            -1.4111898839473724e-001 1.0449676215648651e-001</leafValues></_>
        <_>
          <internalNodes>
            0 -1 1095 293671609 -2021555093 466405357 1139634715
            -1536847875 -8564821 -1142412993 2074794185</internalNodes>
          <leafValues>
            -1.1675018817186356e-001 1.2741491198539734e-001</leafValues></_>
        <_>
          <internalNodes>
            0 -1 1112 -710279016 403459828 397432023 531653140
            2059681900 -1957544332 -1977033508 -397346800</internalNodes>
          <leafValues>
            -1.6015337407588959e-001 9.3002267181873322e-002</leafValues></_>
        <_>
          <internalNodes>
            0 -1 476 1671873968 -1634425802 91520973 -136318330 95778268
            -1669404034 1970783245 1625675298</internalNodes>
          <leafValues>
            -1.4632092416286469e-001 1.0335440933704376e-001</leafValues></_>
        <_>
          <internalNodes>
            0 -1 1147 -891378094 1345908786 -1170435564 126894218
            183337144 1863589203 -991584560 10996222</internalNodes>
          <leafValues>
            -1.6578203439712524e-001 9.0720064938068390e-002</leafValues></_>
        <_>
          <internalNodes>
            0 -1 99 1520243709 1900890904 -724566405 2136587998
            -1287746594 -35533652 824194705 -1625545443</internalNodes>
          <leafValues>
            -1.0176731646060944e-001 1.4966227114200592e-001</leafValues></_>
        <_>
          <internalNodes>
            0 -1 291 1896850078 825895600 1881708702 2143782652
            679188388 775043185 924073116 1870199375</internalNodes>
          <leafValues>
            -1.4423161745071411e-001 1.0713475197553635e-001</leafValues></_>
        <_>
          <internalNodes>
            0 -1 690 141274896 1599753999 712146743 1033350474 211150477
            1754584261 -1673302836 7722571</internalNodes>
          <leafValues>
            -1.6217762231826782e-001 9.7598478198051453e-002</leafValues></_>
        <_>
          <internalNodes>
            0 -1 228 1332676130 1219602792 357697593 -476764808
            593646360 22627388 1665448472 1912585725</internalNodes>
          <leafValues>
            -1.8833817541599274e-001 8.3540953695774078e-002</leafValues></_>
        <_>
          <internalNodes>
            0 -1 1018 -1017139350 674016554 -1130035892 1102373466
            997033796 2382688 -467261736 1391975249</internalNodes>
          <leafValues>
            -1.9163297116756439e-001 7.7142052352428436e-002</leafValues></_>
        <_>
          <internalNodes>
            0 -1 1404 192940208 732573170 -1361941123 818554076
            1945843160 -1645577319 786752958 743967832</internalNodes>
          <leafValues>
            -2.7500846982002258e-001 5.4384235292673111e-002</leafValues></_>
        <_>
          <internalNodes>
            0 -1 740 1802546434 -1709396818 -1321616610 -2085912801
            -1853885484 -1403028306 -1167459991 1156053350</internalNodes>
          <leafValues>
            -1.6157072782516479e-001 9.3680135905742645e-002</leafValues></_>
        <_>
          <internalNodes>
            0 -1 327 1376644854 1130803680 -561304910 -135269406
            2035025378 797750420 349656242 -1063395086</internalNodes>
          <leafValues>
            -1.2187298387289047e-001 1.2345175445079803e-001</leafValues></_></weakClassifiers></_>
    <!-- stage 5 -->
    <_>
      <maxWeakCount>110</maxWeakCount>
      <stageThreshold>-1.6251204013824463e+000</stageThreshold>
      <weakClassifiers>
        <_>
          <internalNodes>
            0 -1 170 2011165695 2013265919 -67108865 -2081 2013265919
            1943912418 -1 -1025</internalNodes>
          <leafValues>
            -3.3906960487365723e-001 2.3335297405719757e-001</leafValues></_>
        <_>
          <internalNodes>
            0 -1 74 2145254399 -8400901 -34078753 -1 -1 -67192993 -1
            -132097</internalNodes>
          <leafValues>
            -8.1953987479209900e-002 4.6536672115325928e-001</leafValues></_>
        <_>
          <internalNodes>
            0 -1 528 940576881 1060837172 1034633045 1069497657
            962606232 -1141218307 735718395 -1073799249</internalNodes>
          <leafValues>
            -1.7676952481269836e-001 1.9553431868553162e-001</leafValues></_>
        <_>
          <internalNodes>
            0 -1 25 -203424786 -9830577 1675325947 -134742049 -25447729
            -70468962 -536871937 1946149631</internalNodes>
          <leafValues>
            -1.4405624568462372e-001 2.1005231142044067e-001</leafValues></_>
        <_>
          <internalNodes>
            0 -1 640 -68179318 2145357822 993089407 2067775455
            2027925162 1070480303 1875090351 -1051765</internalNodes>
          <leafValues>
            -1.2155981361865997e-001 2.1718345582485199e-001</leafValues></_>
        <_>
          <internalNodes>
            0 -1 1389 1603928063 -2049 -1210090497 -2229025 -1087389697
            -262177 -3145729 -151041</internalNodes>
          <leafValues>
            -5.6544795632362366e-002 4.3503266572952271e-001</leafValues></_>
        <_>
          <internalNodes>
            0 -1 1086 -67109377 1073708795 304987135 1069547197
            802110463 1073685757 -1140912405 -1</internalNodes>
          <leafValues>
            -8.0671101808547974e-002 2.7747473120689392e-001</leafValues></_>
        <_>
          <internalNodes>
            0 -1 1212 -77079329 -69247106 -258548353 -783419488
            -321223480 -268505487 -299566886 -1069491968</internalNodes>
          <leafValues>
            -1.3235451281070709e-001 1.6843079030513763e-001</leafValues></_>
        <_>
          <internalNodes>
            0 -1 894 -301278192 -68113664 -51071491 -243405516
            -1370770184 -125136608 -1474795538 -1744822128</internalNodes>
          <leafValues>
            -1.4025706052780151e-001 1.5083239972591400e-001</leafValues></_>
        <_>
          <internalNodes>
            0 -1 538 -238574966 448318091 -742414402 -1348485457
            -277273169 284780973 -134225937 1943011199</internalNodes>
          <leafValues>
            -1.2969499826431274e-001 1.4961124956607819e-001</leafValues></_>
        <_>
          <internalNodes>
            0 -1 110 1598559448 -606514376 2039207933 1405702197
            -546654786 -1948125580 2000811160 1493763380</internalNodes>
          <leafValues>
            -1.6157473623752594e-001 1.2037193775177002e-001</leafValues></_>
        <_>
          <internalNodes>
            0 -1 393 -536870922 999974760 2063338997 926164708
            2132372408 1060665716 1381580152 -5</internalNodes>
          <leafValues>
            -1.2276419997215271e-001 1.6147135198116302e-001</leafValues></_>
        <_>
          <internalNodes>
            0 -1 307 1081549319 1405089647 -1934534401 -137408533
            -1243135601 -41990339 348244711 -440030673</internalNodes>
          <leafValues>
            -1.2091150134801865e-001 1.5523576736450195e-001</leafValues></_>
        <_>
          <internalNodes>
            0 -1 623 -82059522 -377381616 -699141584 -924008416
            -341904680 -934085460 1879498128 -1071590396</internalNodes>
          <leafValues>
            -1.6146418452262878e-001 1.1577562987804413e-001</leafValues></_>
        <_>
          <internalNodes>
            0 -1 1314 28859901 1069339644 401096157 263724025 521438141
            502365528 -1348522820 -1967616790</internalNodes>
          <leafValues>
            -1.5189711749553680e-001 1.2051148712635040e-001</leafValues></_>
        <_>
          <internalNodes>
            0 -1 611 -668297800 -673693968 -1455886383 -545950992
            -422566728 -624433964 -536817204 -933899904</internalNodes>
          <leafValues>
            -1.2955895066261292e-001 1.3222321867942810e-001</leafValues></_>
        <_>
          <internalNodes>
            0 -1 84 2073129209 -75645795 1599430651 -134399521
            -1845708354 -606095410 1038521855 -7473697</internalNodes>
          <leafValues>
            -6.5387368202209473e-002 2.5704851746559143e-001</leafValues></_>
        <_>
          <internalNodes>
